0.022405
0.023229
0.020671
0.018654
-0.029567
-0.004731
0.004724
-0.019987
0.005573
0.032708
-0.025011
0.023424
0.006065
0.033233
-0.018662
0.005899
0.004065
-0.024297
0.010160
0.002260
0.024005
-0.016414
0.026203
-0.019518
-0.020667
0.031512
-0.003034
-0.001161
0.019598
-0.016997
0.012271
-0.011135
0.004678
0.035805
-0.033450
0.011934
0.031925
-0.007786
-0.013203
0.024670
-0.030631
0.032896
-0.032606
0.008920
-0.005135
0.014492
-0.019775
-0.019794
-0.008897
-0.031032
-0.026446
0.027703
-0.002670
-0.015114
-0.016470
0.020881
0.022563
-0.025110
0.012622
0.034597
0.027119
0.031291
0.031384
-0.019453
0.017521
-0.007130
-0.023971
-0.002960
-0.024975
-0.009172
0.009400
-0.008326
0.010479
-0.016403
0.005634
0.032608
-0.001879
0.002254
-0.021355
-0.001003
-0.001335
0.035740
-0.002325
0.032040
0.019125
-0.017027
-0.033469
-0.028624
-0.016584
-0.027456
0.028492
0.020410
-0.019997
0.033097
-0.014673
-0.015070
0.034254
0.012916
0.000889
-0.021054
-0.031103
-0.034457
-0.003376
-0.020862
0.004386
-0.015407
0.031039
0.004359
-0.010128
0.035486
-0.001948
-0.019177
-0.013247
0.003565
-0.035439
-0.033594
0.031462
0.004986
-0.018247
0.000751
0.009407
-0.032888
0.005644
-0.010294
-0.035127
-0.032868
0.001860
-0.005066
0.034643
-0.002208
0.024246
-0.033726
-0.014558
0.027421
0.011571
0.014210
-0.009053
0.024502
-0.006606
0.016672
0.023502
-0.016788
0.025050
0.025130
-0.006764
0.008972
-0.016099
0.002643
-0.032149
0.012032
0.021264
0.022002
-0.029074
0.006028
-0.005357
0.031506
-0.020783
0.014585
0.006290
0.010365
-0.016482
-0.023920
-0.030241
-0.032669
-0.021651
0.031999
0.001528
-0.027966
-0.016823
-0.020086
-0.013194
-0.032777
-0.025996
-0.004616
0.012512
0.020587
0.004136
-0.028891
-0.031122
-0.033312
0.004501
0.012076
0.011108
-0.009804
-0.017274
0.035254
0.024737
-0.024282
-0.029844
0.008894
-0.024289
0.022991
-0.018514
0.023152
-0.015390
-0.026833
0.006412
0.016887
-0.018201
-0.028513
0.002848
-0.018637
0.033162
0.002935
0.009869
0.007903
0.003024
-0.024759
0.009840
0.030599
0.013612
0.000664
0.008900
0.005819
0.029454
-0.022943
0.015183
-0.023905
0.015964
0.000393
0.004011
-0.010580
-0.016357
-0.022083
-0.012786
0.023118
0.030635
0.002693
0.034694
-0.025388
0.007187
0.032792
0.034088
0.026433
0.005248
-0.007974
-0.013267
0.020332
-0.014475
0.016312
-0.005847
-0.029920
0.010667
0.019668
-0.025620
0.018205
-0.014854
-0.030503
-0.010617
-0.024118
0.028410
0.017845
-0.015722
-0.020080
-0.017274
0.031331
-0.002541
-0.025796
0.018911
0.034535
0.027374
0.005961
-0.026378
0.024272
0.034601
0.002537
-0.015174
-0.024889
0.031569
-0.015152
-0.001774
-0.004429
0.014884
0.014172
-0.000500
-0.011014
-0.010161
0.015171
0.018999
0.007506
-0.027582
-0.001075
-0.002455
-0.026294
-0.019586
0.020282
0.006213
-0.009722
-0.005994
-0.002901
0.006425
0.005963
-0.023003
0.002053
-0.015692
0.032024
0.000135
0.008364
-0.019887
-0.023265
0.026310
0.007269
0.016414
0.026613
0.022043
0.019902
0.000418
-0.021997
0.001490
0.014702
0.006261
-0.021816
0.004140
-0.019815
-0.003363
-0.010258
0.019423
0.012303
0.008809
0.030259
-0.005521
-0.014679
0.031776
-0.014736
-0.009977
0.019220
0.035089
-0.031437
-0.006628
0.027836
-0.000587
-0.028668
0.009026
-0.020822
-0.034646
-0.019016
-0.033853
0.005185
-0.026982
-0.011995
0.033303
0.000261
0.033347
-0.002617
-0.030711
-0.030267
0.018445
-0.031134
0.003445
-0.012431
0.006205
-0.016567
0.020831
0.028552
-0.024245
0.035017
-0.034939
-0.034891
0.014787
0.002389
-0.025060
0.008498
0.022353
0.004405
0.027472
-0.032667
-0.001673
-0.034822
0.033092
0.028976
0.013057
-0.026037
-0.023818
0.017293
-0.011275
-0.035814
-0.001106
-0.011291
0.023865
0.035062
0.008728
-0.003012
-0.025754
-0.028837
0.015293
-0.009456
-0.012395
0.007817
0.033709
-0.013769
0.018027
-0.021771
0.026889
-0.006499
0.002893
-0.028545
-0.010611
0.024136
0.020738
0.021034
-0.008243
-0.020912
0.016929
-0.026656
0.033089
0.007122
-0.004180
-0.000779
-0.000928
0.032333
-0.001569
0.000894
0.010218
-0.003204
-0.001296
0.006285
0.020569
0.031152
-0.010921
0.002393
0.020088
-0.032333
-0.024486
-0.015995
0.015385
-0.035154
-0.019357
-0.009974
-0.018079
-0.000767
0.012643
-0.023710
-0.006377
-0.024184
-0.032012
0.018159
-0.023362
-0.028037
-0.021835
-0.035130
0.023792
0.021097
-0.018799
0.002949
-0.008402
-0.009301
-0.016732
-0.012489
0.008181
0.028283
-0.032102
-0.010580
-0.006912
0.033796
0.000405
-0.016311
0.014304
-0.005501
-0.011713
0.000294
0.024933
0.027123
0.019131
-0.018442
0.024279
-0.030852
-0.014707
-0.016034
-0.003830
0.029815
-0.034479
-0.028150
-0.035709
0.018587
0.026902
-0.020879
0.002681
0.018183
0.029868
-0.024984
0.031146
0.015733
-0.008931
-0.012665
0.005273
0.030806
-0.030016
-0.010671
0.024788
-0.017729
0.023412
0.006906
-0.011267
0.014315
0.002488
-0.011389
0.021802
0.029473
-0.011698
-0.014269
-0.003694
-0.023822
-0.021698
0.013435
-0.035780
0.020301
0.006163
-0.018304
0.029636
0.007355
0.011144
0.024445
-0.002634
0.022736
-0.006586
0.023058
-0.005657
-0.033622
0.030616
0.018861
0.035397
-0.005567
0.010065
-0.021103
-0.017297
-0.023205
-0.029802
0.021900
0.012821
0.002189
-0.005604
0.005529
-0.030408
0.000779
-0.020040
-0.017749
-0.018029
0.000830
0.030464
0.029652
0.022663
0.014432
-0.001904
-0.003833
0.005894
0.031375
-0.034760
0.018945
-0.004596
-0.008800
0.017040
-0.001694
0.030014
0.017748
0.032340
0.006016
0.013920
0.024778
-0.029824
-0.002969
-0.033991
0.014334
-0.012116
-0.014582
-0.030948
0.019594
-0.022734
-0.025236
0.028897
-0.019106
-0.019042
-0.034079
0.006253
-0.031782
-0.036025
0.020496
-0.022295
0.007689
0.016259
-0.030951
-0.023809
0.034969
-0.021936
-0.003599
-0.001812
0.033768
0.000744
0.032384
0.006333
-0.008193
0.031313
0.034515
-0.023835
0.022024
-0.004377
0.029003
0.032382
0.001007
-0.005147
0.018479
-0.000974
0.018269
0.014530
-0.017990
-0.034987
-0.004134
-0.026594
0.007390
0.024205
0.011532
-0.028407
0.018399
0.020750
0.009781
-0.030006
-0.001936
0.008805
0.032533
-0.013802
-0.016716
0.011733
0.015368
0.002349
-0.013354
-0.015889
0.001468
0.029865
0.026456
0.029687
-0.029482
0.019157
-0.008535
0.008553
0.022620
0.008734
0.032884
-0.009622
0.015180
0.010712
0.012496
-0.005155
0.006201
0.000372
0.002219
0.006254
-0.035665
-0.014608
0.026039
-0.032054
-0.006344
0.030713
0.016653
0.032629
0.031496
-0.029586
0.032737
-0.029207
0.029930
0.023030
0.030662
0.021679
-0.017074
0.004610
0.034053
-0.032186
-0.023849
0.010852
0.005449
-0.018170
-0.030933
0.034371
0.033989
0.002607
-0.021871
-0.025146
-0.019763
-0.014989
0.019526
-0.021736
-0.014342
0.006252
0.026305
0.026037
0.013850
0.025039
-0.020238
-0.006023
0.023286
0.006719
0.011983
0.015360
0.001072
-0.014222
0.011528
-0.033544
0.012873
-0.024110
0.026015
0.014440
-0.009970
-0.007576
0.002360
0.016693
0.028619
0.020300
-0.026991
0.019176
0.030364
0.005501
0.020406
0.006778
-0.007546
-0.001153
0.032132
-0.010609
-0.007452
-0.010439
-0.008776
-0.030259
-0.021874
-0.005450
-0.001290
0.014740
-0.003297
-0.015004
-0.018499
-0.023657
0.032639
0.035575
0.031317
0.024721
0.001090
-0.032216
-0.010525
-0.001970
-0.020135
0.006419
-0.003749
0.029429
0.004828
0.000592
-0.017091
0.023160
0.017236
0.018998
-0.005957
-0.032070
-0.033805
0.024975
-0.006256
-0.002417
0.002044
-0.025505
0.001970
-0.004289
0.019670
-0.011096
-0.022349
-0.030457
0.019337
0.027943
-0.031408
-0.035013
-0.007414
0.018603
-0.030202
-0.001981
0.004906
