-0.003585
-0.005138
-0.013395
0.006112
0.033959
0.027458
-0.027268
0.002746
0.008684
-0.004010
-0.012586
-0.013043
-0.011643
-0.003138
0.027945
-0.003542
0.029553
-0.035505
-0.020594
-0.018838
-0.013118
0.006018
0.021228
-0.014299
0.005539
-0.012316
-0.030895
0.034037
-0.009973
-0.033182
0.026559
0.034570
-0.022350
-0.021792
-0.021418
-0.026684
0.008192
-0.021464
0.013033
0.023259
0.003505
-0.014078
-0.014426
0.032891
-0.032674
0.001089
0.035397
0.032390
0.000456
0.006143
0.012417
0.034578
0.024656
-0.002343
0.003093
-0.020040
-0.035739
-0.012025
0.021741
-0.019874
0.003230
-0.004361
-0.006225
-0.015795
0.007423
-0.009134
0.027547
-0.007979
0.015767
0.018485
-0.028111
-0.026868
-0.004390
0.011912
-0.009509
0.008187
-0.035054
-0.006418
-0.002539
-0.010323
0.002144
-0.000189
0.016910
0.011098
-0.035161
0.002579
-0.011755
-0.013834
-0.022337
0.004718
0.023390
0.015998
-0.012877
-0.020289
0.018057
0.008089
0.018891
0.014509
-0.026353
-0.025193
-0.011628
-0.005859
0.028657
-0.012480
0.018113
-0.002996
0.007247
-0.025433
0.018473
0.005283
-0.008840
-0.031839
-0.002420
-0.030982
-0.006032
0.020249
0.013304
-0.017314
0.018227
-0.022096
0.032916
-0.032370
0.021801
-0.005144
0.008709
0.024961
0.001096
0.009057
-0.027952
0.033710
0.031533
0.006309
-0.010825
0.024211
-0.023347
0.011578
-0.007975
-0.010235
-0.034078
0.022605
0.034547
0.035113
0.034349
0.000459
0.002368
-0.008381
0.004647
0.011793
0.014701
-0.003255
0.012111
-0.028687
0.027450
0.019995
-0.000490
0.004716
-0.031520
0.021193
-0.027230
0.017256
-0.033242
-0.034079
-0.021298
0.021098
0.022173
-0.016580
-0.010212
0.014873
-0.019463
0.019018
0.031527
-0.033605
-0.007167
0.017912
0.027730
0.024719
0.024623
0.029369
-0.022422
-0.004028
-0.000832
-0.026870
-0.021989
0.020238
0.022630
0.017827
-0.010071
-0.035214
0.004494
0.003019
-0.028353
0.032202
0.015936
0.027520
0.034621
-0.025542
0.007328
-0.019164
0.021173
0.027583
0.002345
0.023516
0.032649
-0.009769
0.031540
-0.011341
0.014279
0.020473
-0.029321
-0.033046
0.027465
-0.013477
0.008761
-0.029422
0.009752
-0.028877
-0.003541
0.026175
0.008464
0.030893
0.027794
0.002715
-0.017638
0.031668
-0.006041
-0.023176
0.002274
0.013066
-0.021091
-0.034947
0.032750
-0.002545
-0.019586
0.016008
0.029741
-0.016268
0.009948
0.000286
0.009344
-0.026047
0.025745
0.001854
-0.021947
-0.005062
0.030118
-0.004470
-0.020527
-0.012335
0.020797
0.004768
-0.007211
0.011904
-0.030399
-0.019960
-0.019405
-0.020084
0.033942
-0.006723
0.027975
-0.006329
0.031859
-0.011011
-0.014238
-0.000963
-0.030808
0.023044
-0.004459
-0.029873
0.023569
-0.028045
-0.028919
-0.017034
-0.013255
-0.028088
0.009338
0.000942
0.015647
0.000965
0.026780
-0.032023
0.026287
-0.012818
0.007986
0.004127
0.015607
-0.015936
0.000411
-0.000698
0.003132
-0.034762
0.014128
0.000421
-0.016252
-0.018933
0.009731
-0.003097
-0.019998
0.032348
0.026944
0.034171
0.017849
-0.032385
-0.018723
0.004197
-0.011716
-0.023844
-0.000491
-0.009278
-0.023868
-0.034828
-0.000479
-0.010908
0.009949
-0.012199
0.004849
0.033821
0.012277
0.010299
0.017136
0.020313
0.021267
-0.015754
-0.004270
-0.033098
-0.022556
0.021286
0.003648
0.030840
0.021060
0.014032
-0.010937
0.026300
0.014499
-0.022535
-0.023852
-0.025983
-0.033744
0.015665
-0.025171
-0.035113
-0.024026
0.029616
0.015097
0.024820
0.011667
-0.030606
-0.011995
-0.024104
0.016361
0.002553
0.008140
0.003815
0.027248
-0.027834
0.016398
-0.001806
-0.018096
0.011837
-0.012833
0.035451
-0.004302
-0.009061
-0.008423
0.035989
-0.010003
-0.023273
0.030662
-0.023541
-0.010915
0.008566
-0.008581
0.016750
0.025908
0.008091
-0.014869
0.011714
-0.003302
-0.007456
-0.016826
-0.031865
0.013576
0.020425
-0.016985
0.016670
0.003821
0.026634
-0.036001
0.031279
-0.035637
0.017566
-0.035517
0.020061
-0.020819
-0.003874
0.029941
0.024662
-0.008707
0.012217
0.034307
0.018982
0.022378
0.017379
-0.019750
0.016591
0.027235
0.010762
-0.034794
-0.000497
-0.022188
0.008327
-0.013696
-0.032999
0.018433
-0.029192
0.017728
-0.010370
-0.018088
0.005794
-0.022425
0.013613
0.003085
-0.026414
0.013609
-0.014866
-0.009654
-0.010773
0.031099
0.020096
-0.003738
-0.012087
0.033419
0.007085
0.007786
-0.030621
-0.018399
0.029114
-0.020144
0.024031
-0.024003
0.003171
-0.017497
-0.012046
0.008627
-0.014633
0.028154
-0.018812
0.033374
0.028657
0.007280
-0.030469
-0.015628
0.014600
0.014612
-0.025371
0.014426
-0.031787
-0.034727
-0.008907
-0.015452
-0.007073
0.032945
-0.028100
0.023929
-0.005269
0.026484
-0.030670
-0.016639
0.023753
-0.012717
-0.014353
-0.023767
-0.029058
0.001934
-0.003168
0.014297
-0.011570
0.005116
0.007111
0.002740
0.005397
0.028178
-0.015730
-0.033649
-0.027898
0.009838
-0.036056
0.003128
0.003855
-0.029578
0.016690
-0.032882
-0.002970
-0.027252
-0.006829
0.019189
0.030894
0.011415
0.033274
-0.017631
-0.025548
-0.020338
-0.012704
-0.034809
-0.002798
0.021998
0.019982
0.031017
-0.010913
0.006663
-0.033068
-0.002463
0.034041
-0.006059
0.002395
-0.007504
0.017345
-0.006703
0.027166
0.021097
0.005919
-0.015914
0.005417
0.016132
-0.017952
-0.003817
-0.013677
-0.004306
-0.008765
-0.017536
0.008052
-0.027560
-0.023642
0.032027
0.020677
-0.011046
0.030649
0.026646
0.000676
0.030973
-0.019406
-0.001223
0.019155
0.026896
0.021590
-0.024397
0.021086
0.028642
-0.030627
0.014153
-0.029335
-0.030868
0.027314
0.035388
-0.009417
-0.028964
-0.021012
0.016907
0.022921
0.023087
0.021251
-0.002064
-0.016388
0.006881
0.032114
0.025704
0.031236
-0.033440
-0.011169
0.035541
0.022273
-0.034075
-0.030177
0.022660
-0.010504
0.009588
-0.033456
-0.025016
0.017792
0.008572
0.029595
0.014514
0.006222
0.011568
-0.010656
0.016738
-0.033190
-0.022532
-0.008775
-0.032946
0.025466
0.005561
-0.003523
-0.027707
-0.023211
0.009184
-0.010876
0.019899
0.033126
0.018202
0.032053
-0.032128
0.000039
0.003321
0.023147
-0.006253
-0.035787
-0.000180
0.012916
0.035707
-0.014887
-0.004699
-0.033346
-0.021981
-0.020867
0.019226
-0.030526
-0.004321
-0.034764
0.034029
0.000904
-0.003458
-0.010458
-0.003176
0.001456
-0.033525
0.000745
-0.023114
-0.005578
-0.003987
-0.000122
0.020661
0.029908
-0.029310
0.020403
0.024295
-0.025308
0.024976
-0.021575
-0.017197
0.031585
0.008887
0.034774
-0.012107
0.024185
-0.034290
0.008879
0.018976
-0.010483
0.032530
0.032956
0.028408
0.012294
0.032380
-0.027897
0.028394
0.008095
0.025694
0.024525
-0.014611
-0.003737
-0.023910
-0.017514
-0.015486
0.020681
0.027046
-0.016739
0.035154
-0.013260
0.020031
-0.030567
-0.023165
-0.019879
-0.019705
0.003505
-0.024545
-0.029159
0.003561
-0.032698
0.024794
-0.015685
-0.008417
0.019661
-0.004777
0.013036
0.006995
0.022524
-0.018308
-0.005481
0.005169
-0.026840
-0.018880
-0.017320
0.025430
-0.003492
-0.005937
0.022459
0.022778
-0.022157
-0.034831
-0.006110
0.021972
0.013068
0.012520
0.033585
0.033371
-0.004590
0.019967
0.001865
0.011119
0.002218
-0.005510
-0.020484
-0.016977
0.029070
-0.013661
0.002367
0.008940
0.012292
0.024608
-0.024418
-0.000765
0.020862
0.010626
-0.017157
0.009991
-0.020885
-0.010005
0.017235
-0.029774
0.028485
-0.024492
-0.033341
-0.016854
-0.001162
-0.029675
-0.027626
-0.003835
0.007335
0.010572
0.023545
-0.017605
0.003185
-0.032329
0.003367
0.010148
0.016259
-0.029292
-0.014981
-0.024593
-0.030740
0.011809
-0.017218
-0.026095
0.002833
0.023657
-0.031829
-0.001559
0.019422
-0.017979
0.019795
-0.030265
0.000352
-0.018585
0.034860
0.020230
-0.019252
0.030191
-0.027612
