0.009497
-0.009254
0.012832
-0.012806
0.005610
0.011347
-0.024205
0.000173
-0.020085
-0.024125
-0.022682
-0.002681
-0.015449
-0.030700
-0.034472
-0.024843
0.023052
-0.028898
0.000012
-0.035003
0.017718
-0.027119
-0.024725
-0.022940
0.007403
-0.022779
-0.033935
-0.014441
0.023218
0.025109
0.025369
0.019982
-0.006693
-0.002662
-0.035022
0.012529
-0.031584
-0.024785
-0.034366
-0.031521
-0.020854
0.033910
0.006450
-0.030822
0.011712
-0.009768
0.029397
-0.036046
0.018321
-0.013429
0.012403
0.023851
-0.001703
0.011829
-0.021255
-0.031023
0.009796
0.003927
-0.015355
-0.025914
0.002250
0.017548
0.005392
0.019463
-0.021471
-0.022197
-0.035650
-0.012703
0.007381
-0.007709
-0.020298
-0.020859
0.009537
-0.001240
-0.015788
-0.012120
0.000244
-0.027351
-0.020556
-0.021112
0.020002
0.005741
-0.030780
-0.015478
-0.011456
0.022064
0.026283
0.010317
-0.019083
-0.024000
-0.033123
0.029642
0.000928
-0.008797
0.008178
0.006626
0.024335
-0.001269
-0.029812
0.002793
0.002933
0.007171
-0.007079
-0.014395
0.015397
-0.027863
0.024832
-0.031314
-0.020129
0.014044
-0.001336
0.003143
0.008226
-0.033384
-0.015658
0.002432
-0.015942
0.020674
-0.006073
-0.018707
0.006956
0.036074
0.003100
0.023575
-0.028301
0.034713
0.030517
0.011301
-0.003332
-0.021071
0.031732
0.006316
0.018748
0.023295
-0.024375
-0.012016
-0.027082
-0.009787
-0.018913
-0.028169
0.009714
0.022800
-0.021584
0.007492
-0.022268
0.030935
-0.009492
0.028597
0.029114
-0.005515
0.005948
-0.020080
-0.018102
-0.025131
-0.010673
-0.002271
0.002716
-0.025091
-0.015046
0.000952
0.013749
-0.031591
-0.035242
-0.006905
0.033170
-0.015858
-0.012015
0.022287
-0.010259
0.002490
0.007920
0.003830
-0.024016
0.035527
-0.019864
-0.034284
-0.035151
-0.011066
-0.024247
0.021746
-0.003564
-0.025114
-0.033486
0.027905
0.007720
-0.003133
0.008416
-0.030717
0.025185
0.011467
-0.017516
0.026056
-0.025991
-0.034742
-0.012434
-0.026978
0.036001
-0.011374
-0.010889
0.019411
0.025411
-0.029533
-0.001294
-0.020775
0.031655
-0.027591
-0.031629
0.012667
0.035334
0.006158
-0.010855
-0.015114
0.014640
-0.023341
0.034447
-0.033944
-0.009569
-0.014561
0.015989
0.026812
0.029944
0.030109
-0.020590
-0.017098
-0.005975
0.012856
-0.004731
0.035187
0.015545
-0.033320
0.025943
0.027146
0.027702
0.005474
-0.026621
0.008811
-0.004649
0.023331
-0.020345
-0.003593
0.028042
0.029255
0.014631
0.007847
-0.027082
0.026243
0.009272
-0.012115
0.001631
0.036032
-0.007782
0.006312
-0.020666
-0.013111
0.019617
-0.001897
0.019125
-0.033120
0.027588
-0.022405
-0.022617
-0.003726
0.034899
-0.025783
0.007997
0.008366
0.023153
-0.022607
-0.029837
0.017236
-0.001073
0.035376
0.008674
0.001643
0.006106
0.006662
-0.003183
-0.028988
-0.010977
0.024062
-0.033455
-0.001059
0.010388
-0.000696
0.013012
-0.025546
-0.011154
0.009273
0.020723
0.001483
0.020473
0.013808
0.013639
-0.030387
0.017001
0.009360
0.022304
-0.016444
0.027247
-0.031313
0.023306
-0.009284
0.014762
0.012153
0.016351
-0.002464
-0.006775
0.015424
-0.006452
-0.002939
0.022696
-0.019948
-0.000513
0.024567
-0.014050
0.034351
0.020783
0.016871
-0.030011
0.002581
0.031755
0.012596
0.032496
-0.004259
0.015999
0.012893
0.027048
-0.022323
0.034352
0.035717
-0.029320
-0.015307
-0.024952
0.011643
0.000781
0.026845
0.014511
0.008160
-0.028929
-0.008415
0.019786
0.011590
0.027307
0.002215
-0.032663
-0.008309
0.001599
-0.033886
0.015897
0.023732
0.032547
0.004812
-0.008590
-0.032257
0.011938
-0.019227
-0.027483
0.023735
-0.024144
0.013189
-0.025216
-0.026902
0.015423
0.005600
0.015265
0.031993
-0.003095
-0.017548
-0.034391
-0.010093
-0.026537
-0.005916
0.020000
-0.020440
-0.019236
-0.016639
0.033449
-0.002647
0.015501
-0.035364
-0.010997
0.007057
-0.013670
-0.001315
-0.028320
0.029916
-0.026664
0.002062
0.032759
-0.021949
-0.013279
0.016685
-0.029104
-0.025919
0.009323
0.007679
-0.012184
-0.019920
-0.013075
-0.000905
0.000029
0.024853
-0.005756
-0.011673
0.014226
-0.012852
-0.032486
0.008944
0.034934
-0.012024
-0.001442
0.035405
-0.018573
0.035488
-0.014960
0.009691
0.026498
0.023372
-0.006893
-0.000414
-0.015742
-0.024164
0.007683
0.006009
-0.017399
-0.021683
-0.023270
-0.006992
-0.027021
0.023069
0.017623
-0.030938
0.024704
0.026755
-0.031756
-0.006017
0.027732
0.020080
-0.002846
0.023389
-0.029531
0.019422
-0.014182
0.013257
0.005336
-0.008072
-0.007245
-0.024208
-0.016977
-0.005642
0.007345
-0.019741
0.034916
0.006953
-0.023698
0.001947
-0.030138
0.029121
0.033668
-0.015782
0.021326
0.034483
-0.035512
-0.017904
-0.009226
0.011357
-0.034618
0.010216
-0.015579
-0.032763
-0.011509
-0.002810
0.007705
-0.024253
0.018478
0.034567
0.035825
-0.023954
0.034002
-0.006011
0.008372
0.024961
-0.025909
-0.022770
0.003144
-0.011931
-0.031399
0.034941
0.034835
-0.020322
-0.024585
0.027186
0.015364
-0.012760
-0.025311
0.023984
-0.031679
-0.014504
-0.012870
0.005237
0.030029
0.001425
0.018618
-0.030594
-0.023304
-0.028512
-0.033164
0.032684
-0.001731
-0.017339
0.033174
0.034000
0.030417
0.030071
-0.016784
0.024483
-0.033548
0.029267
-0.018574
0.017093
0.016012
0.012797
-0.030940
0.011449
0.009415
-0.014818
0.015677
0.002521
0.017258
0.010295
-0.013905
0.008029
-0.033921
0.025540
-0.015856
-0.031912
-0.007922
0.000872
0.005063
0.014447
0.000979
-0.018057
-0.003709
0.007039
0.010552
-0.011898
-0.019155
-0.014475
0.018301
-0.013735
0.023132
0.025628
-0.029561
-0.021642
-0.026320
-0.024629
-0.005500
0.030826
0.004000
0.011278
0.030670
-0.016883
-0.005355
-0.003800
-0.003305
0.006780
0.014501
0.018281
0.008015
0.033959
0.029194
-0.029623
0.012840
-0.008221
0.006277
-0.006120
0.017371
0.016132
-0.006967
-0.007404
0.004319
0.017574
-0.011631
0.017559
-0.020192
-0.032864
0.020754
0.025524
0.020782
0.022435
-0.000792
0.011650
-0.008774
0.015730
-0.000774
0.018134
-0.010373
-0.008769
0.030429
-0.021872
0.021648
0.030564
-0.001605
-0.035549
-0.034664
0.014657
-0.035402
0.007591
-0.016355
0.028663
-0.008463
0.020760
-0.032853
0.021474
0.025593
0.011264
-0.011297
0.035585
-0.022647
-0.004243
0.021015
0.018723
-0.023701
-0.005533
-0.006879
0.005686
0.003922
-0.028720
-0.011275
-0.035403
-0.035442
-0.024488
0.023176
-0.022347
0.014290
0.024067
-0.027035
0.027617
0.023187
0.027594
0.019961
-0.031430
-0.024330
-0.026497
-0.017701
-0.021219
0.030874
0.029762
-0.011937
-0.026764
-0.004332
-0.003667
0.005481
-0.014017
-0.000602
-0.017887
0.032333
0.031916
0.035775
-0.010297
0.000749
0.018115
0.006236
-0.017773
-0.011499
-0.004332
-0.031725
-0.025528
-0.006183
-0.001714
-0.012410
-0.020302
0.023327
0.006088
-0.031854
-0.036072
-0.032174
-0.028768
0.016706
-0.008945
-0.008135
0.002329
-0.004831
0.008793
0.017735
0.025643
-0.019461
0.023355
-0.019154
0.006251
0.024173
0.011415
-0.009816
0.007031
0.029680
-0.025222
-0.005841
0.034469
-0.018434
-0.017773
0.016529
-0.015473
-0.002047
0.005932
0.016493
0.018564
-0.011543
0.026409
-0.000414
-0.012454
-0.025288
-0.015875
-0.030934
-0.027635
-0.012923
-0.005433
0.008588
0.030188
-0.004069
0.021776
-0.014940
0.009764
-0.003694
0.020100
-0.029349
0.002635
-0.031301
-0.004807
0.009305
-0.011792
-0.029681
-0.012345
0.015511
-0.003386
0.034438
-0.009446
-0.031354
0.028547
0.010502
0.008873
-0.017881
0.015707
0.026614
0.019781
0.031148
-0.024178
0.034449
-0.032475
0.018231
-0.031140
-0.035313
0.009923
-0.035182
0.032381
0.024670
-0.002904
-0.018202
0.012711
-0.016643
0.002105
0.016791
-0.000806
0.017959
-0.029755
-0.004997
-0.008350
0.020369
0.025877
